tree
version=v4
num_class=1
num_tree_per_iteration=1
label_index=0
max_feature_idx=13
objective=regression
feature_names=pred_sell_reg pred_sell_cls pred_buy_reg pred_buy_cls price_vs_dsa_vwap_pct ret_to_last_low_pct current_stage_amp_pct ret_to_last_high_pct current_pullback_from_stage_extreme_pct current_stage_ret_pct dsa_pivot_pos_01 beta range_position intraday_range
feature_infos=[-0.15104226466357643:3.3673452662727565] [0.0017529018684317845:0.99409130962375991] [-0.4657951577924303:0.046549280396537301] [0.0099708898202232922:0.99841301060216248] [-0.59298480563207234:1.5008850477776292] [-0.72171021721059669:10.413427561837455] [0.031553398058252358:8.0957446808510625] [-0.78491620111731841:4.7067137809187276] [-0.60069444444444442:1.7211538461538463] [-0.78765237907982699:7.0263157894736832] [0:1] [0.084207546297570754:1.6442936498352161] [0:1] [0:0.38030984507746118]
tree_sizes=881 911 913 916 914 924 916 914 919 915 915 922 921 927 925 922 927 924 923 920 924 927 932 926 925 922 925 922 925 931 927 928 930 937 927 928 929 928 945 935 923 833 920 930 922 944 934 930 939 929 935 924 934 832 932 940 941 930 938 912 928 926 931 944 930 945 934 939 928 941 948 928 940 935 939 934 933 920 922 929 842 926

Tree=0
num_leaves=8
num_cat=0
split_feature=0 0 1 6 0 1 0
split_gain=6573.44 1464.89 1262.99 295.209 272.658 128.126 124.053
threshold=0.23493000417610624 0.41636679824227646 0.5389372381082459 2.0280872683695597 0.16091445441614236 0.27534252033477485 0.32368663739134201
decision_type=2 2 2 2 2 2 2
left_child=2 6 5 -3 -4 -1 -2
right_child=1 3 4 -5 -6 -7 -8
leaf_value=0.12921477706965728 0.14170811813173961 0.15383630539126542 0.13371158636424518 0.16594357794594056 0.13728248310389438 0.13123416412556924 0.14633058945479024
leaf_weight=168689 43213 13843 144919 7925 84698 147044 21872
leaf_count=168689 43213 13843 144919 7925 84698 147044 21872
internal_value=0.134242 0.147017 0.132207 0.158246 0.135029 0.130155 0.143262
internal_weight=632203 86853 545350 21768 229617 315733 65085
internal_count=632203 86853 545350 21768 229617 315733 65085
is_linear=0
shrinkage=1


Tree=1
num_leaves=8
num_cat=0
split_feature=0 0 0 6 0 0 0
split_gain=5932.58 1322.08 1146.36 266.428 163.745 144.21 111.957
threshold=0.23493000417610624 0.41636679824227646 0.1206383612626893 2.0280872683695597 0.068398454736896666 0.1740093073110672 0.32368663739134201
decision_type=2 2 2 2 2 2 2
left_child=2 6 4 -3 -1 -4 -2
right_child=1 3 5 -5 -6 -7 -8
leaf_value=-0.0044865950321654382 0.0070929866963725012 0.018614826547031973 0.00030483213958913148 0.030116864319845806 -0.0023832873870575783 0.0032810613503469221 0.01148435316623953
leaf_weight=197356 43213 13843 108654 7925 174258 65082 21872
leaf_count=197356 43213 13843 108654 7925 174258 65082 21872
internal_value=4.927e-08 0.0121369 -0.00193289 0.0228038 -0.00350033 0.00141978 0.00856895
internal_weight=632203 86853 545350 21768 371614 173736 65085
internal_count=632203 86853 545350 21768 371614 173736 65085
is_linear=0
shrinkage=0.05


Tree=2
num_leaves=8
num_cat=0
split_feature=0 0 1 6 0 1 0
split_gain=5354.19 1193.2 1045.75 240.452 187.73 138.125 101.04
threshold=0.23493000417610624 0.41636679824227646 0.57751724524244286 2.0280872683695597 0.16091445441614236 0.31024356195244701 0.32368663739134201
decision_type=2 2 2 2 2 2 2
left_child=2 6 5 -3 -4 -1 -2
right_child=1 3 4 -5 -6 -7 -8
leaf_value=-0.0044531290403972135 0.006738345434758067 0.017684152272800537 -0.0002804029955326952 0.028611211939324865 0.0027805869775494535 -0.0024117590019036017 0.010910161826798031
leaf_weight=189341 43213 13843 125073 7925 83547 147389 21872
leaf_count=189341 43213 13843 125073 7925 83547 147389 21872
internal_value=5.30487e-08 0.0115301 -0.00183624 0.0216637 0.000945429 -0.00355963 0.00814052
internal_weight=632203 86853 545350 21768 208620 336730 65085
internal_count=632203 86853 545350 21768 208620 336730 65085
is_linear=0
shrinkage=0.05


Tree=3
num_leaves=8
num_cat=0
split_feature=0 0 1 0 1 0 12
split_gain=4832.19 1076.88 946.706 201.69 96.3333 91.1882 45.3489
threshold=0.23493000417610624 0.41636679824227646 0.5389372381082459 0.14918892575742157 0.27534252033477485 0.32368663739134201 0.98058252427184411
decision_type=2 2 2 2 2 2 8
left_child=2 5 4 -4 -1 -2 -3
right_child=1 6 3 -5 -6 -7 -8
leaf_value=-0.0043364651533856205 0.006401435941928442 0.019721486797625039 -0.00066815498500520036 0.002305279246847378 -0.0025854387818111261 0.010364678733579385 0.026683032073208459
leaf_weight=168689 43213 19086 124086 105531 147044 21872 2682
leaf_count=168689 43213 19086 124086 105531 147044 21872 2682
internal_value=5.55102e-08 0.0109536 -0.00174443 0.000698405 -0.003521 0.00773351 0.0205806
internal_weight=632203 86853 545350 229617 315733 65085 21768
internal_count=632203 86853 545350 229617 315733 65085 21768
is_linear=0
shrinkage=0.05


Tree=4
num_leaves=8
num_cat=0
split_feature=0 0 0 6 1 0 0
split_gain=4361.08 971.894 861.763 215.688 162.653 109.831 82.2966
threshold=0.23493000417610624 0.41636679824227646 0.1206383612626893 2.0280872683695597 0.38232902314241013 0.1740093073110672 0.32368663739134201
decision_type=2 2 2 2 2 2 2
left_child=2 6 4 -3 -1 -4 -2
right_child=1 3 5 -5 -6 -7 -8
leaf_value=-0.0038384186748289615 0.0060813717278742664 0.015782828700924817 0.00027662694353307814 0.026131554647846517 -0.0016852444500218328 0.0028739888585802105 0.0098464684852180556
leaf_weight=229710 43213 13843 108654 7925 141904 65082 21872
leaf_count=229710 43213 13843 108654 7925 141904 65082 21872
internal_value=5.77302e-08 0.010406 -0.00165721 0.0195517 -0.00301623 0.00124965 0.00734685
internal_weight=632203 86853 545350 21768 371614 173736 65085
internal_count=632203 86853 545350 21768 371614 173736 65085
is_linear=0
shrinkage=0.05


Tree=5
num_leaves=8
num_cat=0
split_feature=1 6 1 2 6 1 1
split_gain=3144.24 786.94 566.869 294.741 182.961 73.241 63.2715
threshold=0.79913321321482611 1.5486575311942963 0.49883028648289135 -0.089817223957033246 0.71370016257021929 0.68319273980737194 0.20567068965586024
decision_type=2 2 2 2 2 2 2
left_child=2 4 6 -3 -2 -4 -1
right_child=1 3 5 -5 -6 -7 -8
leaf_value=-0.0041660081812880901 0.0029928059918300741 0.0092634746229631366 -0.00069414452797416 0.020544326031064639 0.0068315788760880229 0.0012823952269185221 -0.0026853980753074108
leaf_weight=126166 65522 11706 105465 11467 58995 84354 168657
leaf_count=126166 65522 11706 105465 11467 58995 84354 168657
internal_value=-5.7017e-07 0.00638629 -0.00194693 0.0148466 0.00481166 0.000184189 -0.00331904
internal_weight=632332 147690 484642 23173 124517 189819 294823
internal_count=632332 147690 484642 23173 124517 189819 294823
is_linear=0
shrinkage=0.05


Tree=6
num_leaves=8
num_cat=0
split_feature=0 0 0 6 1 0 0
split_gain=3668.48 913.061 590.771 188.842 160.401 131.481 22.766
threshold=0.27074243106389967 0.12944338538956665 0.41636679824227646 2.0280872683695597 0.38232902314241013 0.18951056484829221 0.32368663739134201
decision_type=2 2 2 2 2 2 2
left_child=1 4 6 -4 -1 -3 -2
right_child=2 5 3 -5 -6 -7 -8
leaf_value=-0.0034741117019829928 0.0067117218971817997 0.00066361826202659502 0.014452388579632403 0.024151935725104007 -0.0014258749719692559 0.0035054776395336698 0.0090062152045074905
leaf_weight=230037 21483 108525 13850 7881 163559 65129 21868
leaf_count=230037 21483 108525 13850 7881 163559 65129 21868
internal_value=-5.37816e-07 -0.00129053 0.0112428 0.0179712 -0.00262298 0.0017295 0.00786945
internal_weight=632332 567250 65082 21731 393596 173654 43351
internal_count=632332 567250 65082 21731 393596 173654 43351
is_linear=0
shrinkage=0.05


Tree=7
num_leaves=8
num_cat=0
split_feature=0 0 0 6 1 0 0
split_gain=3310.83 824.04 533.177 170.43 144.762 118.662 20.5449
threshold=0.27074243106389967 0.12944338538956665 0.41636679824227646 2.0280872683695597 0.38232902314241013 0.18951056484829221 0.32368663739134201
decision_type=2 2 2 2 2 2 2
left_child=1 4 6 -4 -1 -3 -2
right_child=2 5 3 -5 -6 -7 -8
leaf_value=-0.0033004068559563172 0.0063761514257654993 0.00063043765622214972 0.013729821230847358 0.022944492428290129 -0.0013545816577858864 0.0033302064024170104 0.0085559248383809596
leaf_weight=230037 21483 108525 13850 7881 163559 65129 21868
leaf_count=230037 21483 108525 13850 7881 163559 65129 21868
internal_value=-5.04714e-07 -0.00122601 0.0106807 0.0170728 -0.00249184 0.00164303 0.007476
internal_weight=632332 567250 65082 21731 393596 173654 43351
internal_count=632332 567250 65082 21731 393596 173654 43351
is_linear=0
shrinkage=0.05


Tree=8
num_leaves=8
num_cat=0
split_feature=0 0 0 6 0 0 0
split_gain=2991.86 669.613 567.865 153.813 91.1267 63.0574 55.0859
threshold=0.23493000417610624 0.41636679824227646 0.11253368666404996 2.0280872683695597 0.1740093073110672 0.063023285997082262 0.32368663739134201
decision_type=2 2 2 2 2 2 2
left_child=2 6 5 -3 -4 -1 -2
right_child=1 3 4 -5 -6 -7 -8
leaf_value=-0.0032484416260766301 0.0050477569275580282 0.013043379783079088 2.2422936180507685e-05 0.02179741324498137 0.0023125591296981967 -0.0019057093210862908 0.0081281482430822245
leaf_weight=175473 43240 13850 130578 7881 65092 174350 21868
leaf_count=175473 43240 13850 130578 7881 65092 174350 21868
internal_value=-4.73485e-07 0.00861942 -0.00137273 0.0162192 0.000784298 -0.00257925 0.00608256
internal_weight=632332 86839 545493 21731 195670 349823 65108
internal_count=632332 86839 545493 21731 195670 349823 65108
is_linear=0
shrinkage=0.05


Tree=9
num_leaves=8
num_cat=0
split_feature=0 0 0 6 0 0 0
split_gain=2706.07 676.14 431.781 138.817 116.127 73.0742 15.8814
threshold=0.27074243106389967 0.13886773166062402 0.41636679824227646 2.0280872683695597 0.079437196012536751 0.20923460153514342 0.32368663739134201
decision_type=2 2 2 2 2 2 2
left_child=1 4 6 -4 -1 -3 -2
right_child=2 5 3 -5 -6 -7 -8
leaf_value=-0.002863592160622392 0.0058049825067566238 0.0010541940557011588 0.012391257581581048 0.020707680958432877 -0.0011696641025576362 0.003484313171527842 0.007721759428631611
leaf_weight=240925 21483 108608 13850 7881 174456 43261 21868
leaf_count=240925 21483 108608 13850 7881 174456 43261 21868
internal_value=-4.44268e-07 -0.00110838 0.00965606 0.0154083 -0.00215218 0.00174648 0.00677215
internal_weight=632332 567250 65082 21731 415381 151869 43351
internal_count=632332 567250 65082 21731 415381 151869 43351
is_linear=0
shrinkage=0.05


Tree=10
num_leaves=8
num_cat=0
split_feature=0 0 0 1 6 0 0
split_gain=2430.21 611.359 379.3 139.679 122.077 65.3447 14.5946
threshold=0.27074243106389967 0.13886773166062402 0.41636679824227646 0.42032868714358967 2.0280872683695597 0.18951056484829221 0.32368663739134201
decision_type=2 2 2 2 2 2 2
left_child=1 3 6 -1 -4 -3 -2
right_child=2 5 4 -5 -6 -7 -8
leaf_value=-0.0027861636872074064 0.0055207580594550821 0.00076284776461448326 0.01169727622071981 -0.00090973397594505407 0.01949449247803281 0.0028595611648703275 0.0073557749926080208
leaf_weight=251735 21558 86737 13779 163666 7910 65024 21911
leaf_count=251735 21558 86737 13779 163666 7910 65024 21911
internal_value=-3.99183e-06 -0.00105464 0.00914112 -0.00204688 0.0145419 0.00166126 0.00644598
internal_weight=632320 567162 65158 415401 21689 151761 43469
internal_count=632320 567162 65158 415401 21689 151761 43469
is_linear=0
shrinkage=0.05


Tree=11
num_leaves=8
num_cat=0
split_feature=0 0 1 6 0 0 1
split_gain=2196.85 583.86 351.238 110.174 76.6709 66.0024 43.4729
threshold=0.20923460153514342 0.41636679824227646 0.49883028648289135 2.0280872683695597 0.27074243106389967 0.14918892575742157 0.16972967247608459
decision_type=2 2 2 2 2 2 2
left_child=2 4 6 -3 -2 -4 -1
right_child=1 3 5 -5 -6 -7 -8
leaf_value=-0.0032998529111028896 0.0031480922287218552 0.011112454890657821 -0.00052984964472095825 0.018519891001738734 0.0061237019973266167 0.0012246785141576616 -0.0020325079016852727
leaf_weight=105309 43153 13779 143803 7910 43469 85452 189445
leaf_count=105309 43153 13779 143803 7910 43469 85452 189445
internal_value=-3.78678e-06 0.00647856 -0.00134369 0.0138149 0.00464144 0.00012411 -0.00248533
internal_weight=632320 108311 524009 21689 86622 229255 294754
internal_count=632320 108311 524009 21689 86622 229255 294754
is_linear=0
shrinkage=0.05


Tree=12
num_leaves=8
num_cat=0
split_feature=0 0 1 6 0 1 0
split_gain=1983.02 431.941 398.606 99.4314 69.0768 57.3577 38.2881
threshold=0.23493000417610624 0.41636679824227646 0.57751724524244286 2.0280872683695597 0.16091445441614236 0.2400622207385503 0.32368663739134201
decision_type=2 2 2 2 2 2 2
left_child=2 6 5 -3 -4 -1 -2
right_child=1 3 4 -5 -6 -7 -8
leaf_value=-0.0029229954365419626 0.0041157246395424471 0.010556872465691008 -0.00014817151770475979 0.017594013713339806 0.0017082213793603697 -0.0016080243574393292 0.0066818319351636254
leaf_weight=147739 43284 13779 124906 7910 83678 189113 21911
leaf_count=147739 43284 13779 124906 7910 83678 189113 21911
internal_value=-3.59355e-06 0.00701199 -0.00112114 0.0131242 0.000596541 -0.00218478 0.00497832
internal_weight=632320 86884 545436 21689 208584 336852 65195
internal_count=632320 86884 545436 21689 208584 336852 65195
is_linear=0
shrinkage=0.05


Tree=13
num_leaves=8
num_cat=0
split_feature=0 0 1 6 0 0 1
split_gain=1795.61 474.108 287.528 89.7363 63.1665 54.2509 35.9784
threshold=0.20923460153514342 0.41636679824227646 0.49883028648289135 2.0280872683695597 0.27074243106389967 0.13886773166062402 0.16972967247608459
decision_type=2 2 2 2 2 2 2
left_child=2 4 6 -3 -2 -4 -1
right_child=1 3 5 -5 -6 -7 -8
leaf_value=-0.0029887134323168234 0.0028461657682452195 0.010029067072174797 -0.00059988091726867249 0.016714424178545486 0.0055470701514343315 0.00094281660726886103 -0.0018357618222635626
leaf_weight=105309 43153 13779 123278 7910 43469 105977 189445
leaf_count=105309 43153 13779 123278 7910 43469 105977 189445
internal_value=-3.40984e-06 0.00585713 -0.00121478 0.0124681 0.00420165 0.000113236 -0.00224771
internal_weight=632320 108311 524009 21689 86622 229255 294754
internal_count=632320 108311 524009 21689 86622 229255 294754
is_linear=0
shrinkage=0.05


Tree=14
num_leaves=8
num_cat=0
split_feature=0 0 0 6 0 0 0
split_gain=1620.55 427.889 246.931 80.9864 57.0071 36.0002 29.2648
threshold=0.20923460153514342 0.41636679824227646 0.10487270869072175 2.0280872683695597 0.27074243106389967 0.14918892575742157 0.052586199345850591
decision_type=2 2 2 2 2 2 2
left_child=2 4 6 -3 -2 -4 -1
right_child=1 3 5 -5 -6 -7 -8
leaf_value=-0.0025671323950807218 0.0027038608118839617 0.0095276501898448693 -0.00035594733695056067 0.015878808418880792 0.0052697230672511001 0.0010071479025705701 -0.0016043719613055313
leaf_weight=132610 43153 13779 109205 7910 43469 87045 195149
leaf_count=132610 43153 13779 109205 7910 43469 87045 195149
internal_value=-3.23574e-06 0.0055643 -0.00115405 0.0118448 0.00399158 0.000248618 -0.00199392
internal_weight=632320 108311 524009 21689 86622 196250 327759
internal_count=632320 108311 524009 21689 86622 196250 327759
is_linear=0
shrinkage=0.05


Tree=15
num_leaves=8
num_cat=0
split_feature=0 0 1 0 0 2 1
split_gain=1458.5 386.9 237.144 50.9699 49.3196 43.6433 25.5756
threshold=0.20923460153514342 0.41636679824227646 0.45900801186796841 0.13886773166062402 0.27074243106389967 -1.0000000180025095e-35 0.13287916173673245
decision_type=2 2 2 2 2 2 2
left_child=2 4 6 -4 -2 -3 -1
right_child=1 5 3 -5 -6 -7 -8
leaf_value=-0.0028403499289501258 0.0025888755201638851 0.011071669883354094 -0.00059780648084030951 0.00084503443914490147 0.0049776508843106769 0.038625236787977794 -0.0017908981380175275
leaf_weight=83690 43134 21533 143397 106793 43332 144 189774
leaf_count=83690 43134 21533 143397 106793 43332 144 189774
internal_value=-2.62485e-06 0.0052837 -0.00109435 1.80476e-05 0.0037861 0.0112567 -0.0021121
internal_weight=631797 108143 523654 250190 86466 21677 273464
internal_count=631797 108143 523654 250190 86466 21677 273464
is_linear=0
shrinkage=0.05


Tree=16
num_leaves=8
num_cat=0
split_feature=1 6 1 1 1 1 1
split_gain=1058.45 282.758 178.223 126.043 69.3893 23.2209 17.4607
threshold=0.74542438221755647 1.5486575311942963 0.93378844792794646 0.45900801186796841 0.86845673615202179 0.13287916173673245 0.64937932232319373
decision_type=2 2 2 2 2 2 2
left_child=3 4 -3 5 -2 -1 -5
right_child=1 2 -4 6 -6 -7 -8
leaf_value=-0.0026987810073318824 0.0014991297061245786 0.0051965549413562975 0.014130388740052919 -0.00066158132460815812 0.0035989877882007478 -0.0016989396799874908 0.00038883004719585237
leaf_weight=83697 97128 18169 8061 105335 66143 189912 63352
leaf_count=83697 97128 18169 8061 105335 66143 189912 63352
internal_value=-2.48825e-06 0.00312406 0.00794272 -0.00134207 0.00234985 -0.00200482 -0.00026706
internal_weight=631797 189501 26230 442296 163271 273609 168687
internal_count=631797 189501 26230 442296 163271 273609 168687
is_linear=0
shrinkage=0.05


Tree=17
num_leaves=8
num_cat=0
split_feature=6 3 6 3 6 3 3
split_gain=342.328 446.604 176.444 137.743 132.605 42.42 19.2841
threshold=0.91574744314201684 0.57376086972743112 2.0280872683695597 0.60610367583597891 0.41905405797521977 0.8117070174265506 0.86859198720097075
decision_type=2 2 2 2 2 2 2
left_child=3 2 -2 4 -1 -3 -5
right_child=1 5 -4 6 -6 -7 -8
leaf_value=-0.00071271889265170981 0.0048113125569162803 0.0012194911489362265 0.012961130156030161 -0.0011845184384043307 0.0014971979114564724 -0.0010933484397854362 -0.0021698213100469865
leaf_weight=176226 38590 39126 8023 143163 110408 40187 76074
leaf_count=176226 38590 39126 8023 143163 110408 40187 76074
internal_value=-2.36108e-06 0.00233035 0.00621441 -0.000583054 0.0001385 4.75394e-05 -0.00152644
internal_weight=631797 125926 46613 505871 286634 79313 219237
internal_count=631797 125926 46613 505871 286634 79313 219237
is_linear=0
shrinkage=0.05


Tree=18
num_leaves=8
num_cat=0
split_feature=0 0 1 1 2 0 0
split_gain=1146.16 251.192 228.598 40.1857 38.3698 33.3804 25.7779
threshold=0.23493000417610624 0.41636679824227646 0.6139955658455486 0.2400622207385503 -1.0000000180025095e-35 0.1740093073110672 0.32368663739134201
decision_type=2 2 2 2 2 2 2
left_child=2 6 3 -1 -3 -4 -2
right_child=1 4 5 -5 -6 -7 -8
leaf_value=-0.0022270688258203141 0.0030752451435103554 0.0098256867215026408 9.2942553144178321e-05 -0.0011497779224546299 0.035659608294545064 0.0015105448663140354 0.0051842199926311772
leaf_weight=147192 43179 21533 125619 210260 144 62038 21832
leaf_count=147192 43179 21533 125619 210260 144 62038 21832
internal_value=-2.24141e-06 0.00533803 -0.000851515 -0.0015934 0.00999917 0.000561623 0.00378363
internal_weight=631797 86688 545109 357452 21677 187657 65011
internal_count=631797 86688 545109 357452 21677 187657 65011
is_linear=0
shrinkage=0.05


Tree=19
num_leaves=8
num_cat=0
split_feature=0 1 0 6 0 1 10
split_gain=1036.35 262.902 161.357 59.499 52.3002 36.9914 9.80529
threshold=0.27074243106389967 0.6139955658455486 0.41636679824227646 2.0280872683695597 0.18951056484829221 0.31024356195244701 0.99987980769230789
decision_type=2 2 2 2 2 2 8
left_child=1 5 6 -4 -3 -1 -2
right_child=2 4 3 -5 -6 -7 -8
leaf_value=-0.0019911741002965537 0.0058739223076841119 0.00020161472560920231 0.0075035388971458703 0.012942013426660549 0.0019256786377116085 -0.00097253711308133346 0.0038730029515326274
leaf_weight=189145 7401 146099 13725 7952 62942 168602 35931
leaf_count=189145 7401 146099 13725 7952 62942 168602 35931
internal_value=-2.12325e-06 -0.000687957 0.00597723 0.00949933 0.000720759 -0.00151112 0.004215
internal_weight=631797 566788 65009 21677 209041 357747 43332
internal_count=631797 566788 65009 21677 209041 357747 43332
is_linear=0
shrinkage=0.05


Tree=20
num_leaves=8
num_cat=0
split_feature=1 6 1 1 6 1 1
split_gain=744.42 192.155 114.062 111.144 37.5551 17.2074 16.8136
threshold=0.77346409800179694 1.5486575311942963 0.93378844792794646 0.45900801186796841 0.62154576738387102 0.13287916173673245 0.68319273980737194
decision_type=2 2 2 2 2 2 2
left_child=3 4 -3 5 -2 -1 -5
right_child=1 2 -4 6 -6 -7 -8
leaf_value=-0.0022772406106072447 0.001257852841039705 0.0045490207003308176 0.011796512251161325 -0.0004394334090922685 0.0028819821295402795 -0.0014169896752780104 0.00055782419469225923
leaf_weight=83853 65057 16565 8079 126730 78637 189776 63411
leaf_count=83853 65057 16565 8079 126730 78637 189776 63411
internal_value=-1.62674e-06 0.00284638 0.00692554 -0.0010354 0.00214671 -0.00168064 -0.000106826
internal_weight=632108 168338 24644 463770 143694 273629 190141
internal_count=632108 168338 24644 463770 143694 273629 190141
is_linear=0
shrinkage=0.05


Tree=21
num_leaves=8
num_cat=0
split_feature=0 0 0 6 0 0 7
split_gain=873.193 212.232 133.256 49.0305 31.4966 25.8065 9.44936
threshold=0.27074243106389967 0.12944338538956665 0.41636679824227646 2.0280872683695597 0.18951056484829221 0.085172757170291283 -1.0000000180025095e-35
decision_type=2 2 2 2 2 2 8
left_child=1 5 6 -4 -3 -1 -2
right_child=2 4 3 -5 -6 -7 -8
leaf_value=-0.0015588890475730229 0.0055131470571380004 0.00030500700456726816 0.0068902071780145542 0.011835997298028818 0.0016968102661501637 -0.00069956556373783547 0.0035498039077368087
leaf_weight=262553 7411 108666 13798 7884 64952 130984 35860
leaf_count=262553 7411 108666 13798 7884 64952 130984 35860
internal_value=-1.54288e-06 -0.000630449 0.00548977 0.00868929 0.000825728 -0.00127289 0.0038863
internal_weight=632108 567155 64953 21682 173618 393537 43271
internal_count=632108 567155 64953 21682 173618 393537 43271
is_linear=0
shrinkage=0.05


Tree=22
num_leaves=8
num_cat=0
split_feature=1 6 1 1 1 1 4
split_gain=609.397 154.358 109.096 73.5976 39.8822 15.3658 12.3624
threshold=0.74542438221755647 1.5486575311942963 0.93378844792794646 0.45900801186796841 0.86845673615202179 0.095529159421862228 1.0000000180025095e-35
decision_type=2 2 2 2 2 2 2
left_child=3 4 -3 5 -2 -1 -5
right_child=1 2 -4 6 -6 -7 -8
leaf_value=-0.0022102520978081867 0.0011550826074678343 0.0037782776038318062 0.010764893825279391 0.00046007757257786027 0.0027470347350984233 -0.0013194788220950372 -0.00047540418465458065
leaf_weight=62888 97316 18132 8079 50285 66063 210741 118604
leaf_count=62888 97316 18132 8079 50285 66063 210741 118604
internal_value=-1.46158e-06 0.00237035 0.00593228 -0.00101764 0.00179884 -0.00152423 -0.000196843
internal_weight=632108 189590 26211 442518 163379 273629 168889
internal_count=632108 189590 26211 442518 163379 273629 168889
is_linear=0
shrinkage=0.05


Tree=23
num_leaves=8
num_cat=0
split_feature=0 0 0 6 1 0 7
split_gain=735.197 171.435 112.841 41.4693 34.0737 26.2893 9.06179
threshold=0.27074243106389967 0.12944338538956665 0.41636679824227646 2.0280872683695597 0.31024356195244701 0.18951056484829221 -1.0000000180025095e-35
decision_type=2 2 2 2 2 2 8
left_child=1 4 6 -4 -1 -3 -2
right_child=2 5 3 -5 -6 -7 -8
leaf_value=-0.0016409459905837879 0.0051548222964556594 0.00025455530128664283 0.0063270100851599391 0.010875620475254498 -0.00070956806626981271 0.0015261148828310271 0.0032323100179957182
leaf_weight=188567 7411 108666 13798 7884 204970 64952 35860
leaf_count=188567 7411 108666 13798 7884 204970 64952 35860
internal_value=-1.38613e-06 -0.000578462 0.00503737 0.00798163 -0.00115586 0.000730292 0.0035618
internal_weight=632108 567155 64953 21682 393537 173618 43271
internal_count=632108 567155 64953 21682 393537 173618 43271
is_linear=0
shrinkage=0.05


Tree=24
num_leaves=8
num_cat=0
split_feature=1 6 1 1 1 1 1
split_gain=499.703 128.748 82.7914 75.7561 25.972 13.2432 12.6819
threshold=0.77346409800179694 1.5486575311942963 0.93378844792794646 0.45900801186796841 0.88951226529696292 0.13287916173673245 0.64937932232319373
decision_type=2 2 2 2 2 2 2
left_child=3 4 -3 5 -2 -1 -5
right_child=1 2 -4 6 -6 -7 -8
leaf_value=-0.0019043893412321218 0.001288907026704161 0.0036463254421112063 0.009821005860759964 -0.00044717482231251853 0.0027201881812506734 -0.0011496989390507902 0.00037451846738681134
leaf_weight=83853 96468 16565 8079 105567 47226 189776 84574
leaf_count=83853 96468 16565 8079 105567 47226 189776 84574
internal_value=-1.31287e-06 0.00233208 0.00567108 -0.000848295 0.00175936 -0.001381 -8.16624e-05
internal_weight=632108 168338 24644 463770 143694 273629 190141
internal_count=632108 168338 24644 463770 143694 273629 190141
is_linear=0
shrinkage=0.05


Tree=25
num_leaves=8
num_cat=0
split_feature=0 0 0 6 0 0 10
split_gain=626.664 136.69 103.929 42.5886 22.4472 17.4162 8.93425
threshold=0.27074243106389967 0.12944338538956665 0.41636679824227646 2.0280872683695597 0.18951056484829221 0.041290692687651891 0.99987980769230789
decision_type=2 2 2 2 2 2 8
left_child=1 5 6 -4 -3 -1 -2
right_child=2 4 3 -5 -6 -7 -8
leaf_value=-0.0016665694432483173 0.0048248409839461723 0.00019483392370733764 0.0057975157306818575 0.010415020493260428 0.0013699287790384089 -0.00087033338641996541 0.0029158194263847882
leaf_weight=88678 7400 108604 13651 7888 64953 304832 36056
leaf_count=88678 7400 108604 13651 7888 64953 304832 36056
internal_value=-1.22239e-06 -0.000534237 0.00464907 0.00748917 0.000634643 -0.00104978 0.00324112
internal_weight=632062 567067 64995 21539 173557 393510 43456
internal_count=632062 567067 64995 21539 173557 393510 43456
is_linear=0
shrinkage=0.05


Tree=26
num_leaves=8
num_cat=0
split_feature=0 1 0 6 0 1 8
split_gain=565.571 126.775 93.7969 38.4356 26.3135 21.3641 8.18146
threshold=0.27074243106389967 0.6139955658455486 0.41636679824227646 2.0280872683695597 0.18951056484829221 0.20567068965586024 1.0000000180025095e-35
decision_type=2 2 2 2 2 2 2
left_child=1 5 6 -4 -3 -1 -2
right_child=2 4 3 -5 -6 -7 -8
leaf_value=-0.0016021207941788998 0.0029015874923945177 0.00010150624024439189 0.005507661104970564 0.0098943353453196277 0.0013231456537608347 -0.00079369675957520469 0.0057386007489382733
leaf_weight=126375 40741 146129 13651 7888 63124 231439 2715
leaf_count=126375 40741 146129 13651 7888 63124 231439 2715
internal_value=-1.15748e-06 -0.000507525 0.00441665 0.00711476 0.000470059 -0.00107924 0.00307908
internal_weight=632062 567067 64995 21539 209253 357814 43456
internal_count=632062 567067 64995 21539 209253 357814 43456
is_linear=0
shrinkage=0.05


Tree=27
num_leaves=8
num_cat=0
split_feature=0 1 0 6 0 1 0
split_gain=510.435 114.415 84.6523 34.6874 24.1104 19.2809 7.91142
threshold=0.27074243106389967 0.6139955658455486 0.41636679824227646 2.0280872683695597 0.1740093073110672 0.20567068965586024 0.32368663739134201
decision_type=2 2 2 2 2 2 2
left_child=1 5 6 -4 -3 -1 -2
right_child=2 4 3 -5 -6 -7 -8
leaf_value=-0.0015220153872285806 0.0022451046749006284 8.406629275033859e-06 0.0052322981027969791 0.0093996811847039362 0.0011040456386939006 -0.0007540120932952748 0.0035956744824669411
leaf_weight=126375 21581 125577 13651 7888 83676 231439 21875
leaf_count=126375 21581 125577 13651 7888 83676 231439 21875
internal_value=-1.09581e-06 -0.000482148 0.00419585 0.00675907 0.000446557 -0.00102528 0.00292514
internal_weight=632062 567067 64995 21539 209253 357814 43456
internal_count=632062 567067 64995 21539 209253 357814 43456
is_linear=0
shrinkage=0.05


Tree=28
num_leaves=8
num_cat=0
split_feature=0 0 1 6 0 0 1
split_gain=460.885 105.628 81.0337 31.3048 20.6873 14.0796 11.2664
threshold=0.23493000417610624 0.41636679824227646 0.49883028648289135 2.0280872683695597 0.16091445441614236 0.32368663739134201 0.095529159421862228
decision_type=2 2 2 2 2 2 2
left_child=2 5 6 -3 -4 -2 -1
right_child=1 3 4 -5 -6 -7 -8
leaf_value=-0.0016938271787636336 0.0018587754087745411 0.0049707024786431282 -0.00020528381152721512 0.0089297567131945473 0.00075279531074751009 0.0034158989934383399 -0.00094000956072843537
leaf_weight=63098 43263 13651 165191 7888 85504 21875 231592
leaf_count=63098 43263 13651 165191 7888 85504 21875 231592
internal_value=-1.03751e-06 0.00338571 -0.0005393 0.00642116 0.000121468 0.00238182 -0.00110144
internal_weight=632062 86677 545385 21539 250695 65138 294690
internal_count=632062 86677 545385 21539 250695 65138 294690
is_linear=0
shrinkage=0.05


Tree=29
num_leaves=8
num_cat=0
split_feature=1 6 2 1 6 1 1
split_gain=304.235 84.8945 69.7924 58.4055 12.2318 10.6631 8.91438
threshold=0.79913321321482611 1.5486575311942963 -0.034849067872420543 0.45900801186796841 0.58232253516990229 0.68319273980737194 0.095529159421862228
decision_type=2 2 2 2 2 2 2
left_child=3 4 -3 6 -2 -5 -1
right_child=1 2 -4 5 -6 -7 -8
leaf_value=-0.0016091371610092661 0.00082997632436361763 0.003857218199977995 0.013024273803051576 -0.00027146889836150197 0.0018555698738896142 0.00045355635399290907 -0.00093142386754680091
leaf_weight=63098 46486 20764 2307 126528 77719 84632 210528
leaf_count=63098 46486 20764 2307 126528 77719 84632 210528
internal_value=-9.8309e-07 0.00198923 0.00477463 -0.000605616 0.00147177 1.90951e-05 -0.00108773
internal_weight=632062 147276 23071 484786 124205 211160 273626
internal_count=632062 147276 23071 484786 124205 211160 273626
is_linear=0
shrinkage=0.05


Tree=30
num_leaves=8
num_cat=0
split_feature=0 0 0 2 2 1 8
split_gain=380.708 84.9678 62.4265 32.233 17.5619 14.9901 8.32868
threshold=0.27074243106389967 0.1206383612626893 0.41636679824227646 1.0000000180025095e-35 -0.1387683385845887 0.2400622207385503 1.0000000180025095e-35
decision_type=2 2 2 2 2 2 2
left_child=1 5 6 -4 -3 -1 -2
right_child=2 4 3 -5 -6 -7 -8
leaf_value=-0.0012567779870083743 0.0023422753433993402 -0.00068180020370597091 0.0056413655799173804 0.028836361909568904 0.00062662249550059202 -0.00060692005036119075 0.0052023085170181558
leaf_weight=146834 40861 30351 21558 150 165296 224415 2718
leaf_count=146834 40861 30351 21558 150 165296 224415 2718
internal_value=-3.17965e-06 -0.000419585 0.0036124 0.00580319 0.000423617 -0.000863964 0.00252088
internal_weight=632183 566896 65287 21708 195647 371249 43579
internal_count=632183 566896 65287 21708 195647 371249 43579
is_linear=0
shrinkage=0.05


Tree=31
num_leaves=8
num_cat=0
split_feature=0 0 1 2 0 0 1
split_gain=346.158 94.1396 47.115 29.1144 16.0738 11.5338 6.22635
threshold=0.20923460153514342 0.41636679824227646 0.42032868714358967 1.0000000180025095e-35 0.32368663739134201 0.14918892575742157 0.095529159421862228
decision_type=2 2 2 2 2 2 2
left_child=2 4 6 -3 -2 -4 -1
right_child=1 3 5 -5 -6 -7 -8
leaf_value=-0.0014582292262397215 0.0014337804686289939 0.0053593104053139464 -0.00030099792306196752 0.027404092401543647 0.002997975965217605 0.00039852063815552693 -0.00088397100112709212
leaf_weight=62930 64694 21558 184946 150 22027 86477 189401
leaf_count=62930 64694 21558 184946 150 22027 86477 189401
internal_value=-3.01631e-06 0.00256841 -0.000535373 0.00551312 0.00183117 -7.8108e-05 -0.00102721
internal_weight=632183 108429 523754 21708 86721 271423 252331
internal_count=632183 108429 523754 21708 86721 271423 252331
is_linear=0
shrinkage=0.05


Tree=32
num_leaves=8
num_cat=0
split_feature=0 0 1 8 0 1 0
split_gain=313.278 69.6443 53.5376 25.3037 10.2993 10.0888 10.047
threshold=0.23493000417610624 0.41636679824227646 0.57751724524244286 -1.0000000180025095e-35 0.32368663739134201 0.16972967247608459 0.16091445441614236
decision_type=2 2 2 2 2 2 2
left_child=2 4 5 -3 -2 -1 -4
right_child=1 3 6 -5 -6 -7 -8
leaf_value=-0.0012448573924679915 0.0015190785128266506 0.0045955425416289788 -0.00010217725080402664 0.00978474911535278 0.002848083941374405 -0.00065353703525086878 0.00060537178143966293
leaf_weight=104850 43219 19025 125272 2683 22027 231427 83680
leaf_count=104850 43219 19025 125272 2683 22027 231427 83680
internal_value=-2.86154e-06 0.00278425 -0.000447368 0.00523755 0.00196786 -0.000837927 0.000181156
internal_weight=632183 86954 545229 21708 65246 336277 208952
internal_count=632183 86954 545229 21708 65246 336277 208952
is_linear=0
shrinkage=0.05


Tree=33
num_leaves=8
num_cat=0
split_feature=1 1 6 1 1 2 1
split_gain=201.67 67.2827 58.8354 22.1808 15.4716 7.18878 5.3545
threshold=0.71559634488607093 0.93378844792794646 2.0280872683695597 0.42032868714358967 0.86845673615202179 -0.15504250710789211 0.052633615991565512
decision_type=2 2 2 2 2 2 2
left_child=3 4 -3 6 -2 -5 -1
right_child=1 2 -4 5 -6 -7 -8
leaf_value=-0.0014474965632039758 0.00064205668375430969 0.0025327814336341481 0.0089037251851308685 -0.00099628542555048696 0.0015993016780049378 -5.8723517634632403e-05 -0.00082871948874228309
leaf_weight=41964 126633 16436 4650 23806 63342 144904 210448
leaf_count=41964 126633 16436 4650 23806 63342 144904 210448
internal_value=-2.71591e-06 0.00125872 0.00393833 -0.000634946 0.000961257 -0.000191054 -0.000931618
internal_weight=632183 211061 21086 421122 189975 168710 252412
internal_count=632183 211061 21086 421122 189975 168710 252412
is_linear=0
shrinkage=0.05


Tree=34
num_leaves=8
num_cat=0
split_feature=0 0 0 8 3 7 1
split_gain=263.553 59.3259 43.201 22.0813 10.5442 9.95109 8.72859
threshold=0.23493000417610624 0.41636679824227646 0.11253368666404996 -1.0000000180025095e-35 0.66779894055107103 0.04968001765419839 0.16972967247608459
decision_type=2 2 2 2 2 8 2
left_child=2 5 6 -3 -4 -2 -1
right_child=1 3 4 -5 -6 -7 -8
leaf_value=-0.0011258346422918137 0.00301156200027837 0.0042183225444020131 0.00040537225691499729 0.0090659397068516435 -0.00042476415394208217 0.0014851722330466962 -0.0005800604928236317
leaf_weight=104586 13465 19025 143650 2683 52129 51781 244864
leaf_count=104586 13465 19025 143650 2683 52129 51781 244864
internal_value=-2.5789e-06 0.00255379 -0.000410286 0.00481808 0.00018431 0.0018003 -0.000743421
internal_weight=632183 86954 545229 21708 195779 65246 349450
internal_count=632183 86954 545229 21708 195779 65246 349450
is_linear=0
shrinkage=0.05


Tree=35
num_leaves=8
num_cat=0
split_feature=0 0 0 2 2 0 7
split_gain=246.082 52.2679 38.7318 20.5244 10.6021 9.59064 7.64894
threshold=0.27074243106389967 0.14918892575742157 0.41636679824227646 1.0000000180025095e-35 -0.1387683385845887 0.097826507956932776 0.04968001765419839
decision_type=2 2 2 2 2 2 8
left_child=1 5 6 -4 -3 -1 -2
right_child=2 4 3 -5 -6 -7 -8
leaf_value=-0.00075068547118369879 0.0033992437397959772 -0.00056002080581121815 0.004509980003392141 0.023866926920060344 0.00072812646826299224 -0.00023872934330386951 0.0017213605553205232
leaf_weight=306066 8437 18637 21568 137 111582 130525 35057
leaf_count=306066 8437 18637 21568 137 111582 130525 35057
internal_value=-7.86217e-07 -0.000335414 0.0029082 0.00463348 0.000543725 -0.000597641 0.00204702
internal_weight=632009 566810 65199 21705 130219 436591 43494
internal_count=632009 566810 65199 21705 130219 436591 43494
is_linear=0
shrinkage=0.05


Tree=36
num_leaves=8
num_cat=0
split_feature=0 0 0 6 0 2 4
split_gain=222.679 59.4525 25.225 23.3906 11.4177 10.4563 6.8525
threshold=0.20923460153514342 0.41636679824227646 0.10487270869072175 2.0280872683695597 0.32368663739134201 -0.1387683385845887 -0.078156500658744008
decision_type=2 2 2 2 2 2 2
left_child=2 4 6 -3 -2 -4 -1
right_child=1 3 5 -5 -6 -7 -8
leaf_value=-0.00042523104208407812 0.0011415741250542667 0.003162715329738114 -0.0007817045967406849 0.0065785285248395348 0.0024613362188274776 0.00018715999995183976 -0.00088925028481283788
leaf_weight=136291 64781 13834 33614 7871 21954 162308 191356
leaf_count=136291 64781 13834 33614 7871 21954 162308 191356
internal_value=-7.43135e-07 0.00206148 -0.000427878 0.00440189 0.00147571 2.09049e-05 -0.00069625
internal_weight=632009 108440 523569 21705 86735 195922 327647
internal_count=632009 108440 523569 21705 86735 195922 327647
is_linear=0
shrinkage=0.05


Tree=37
num_leaves=8
num_cat=0
split_feature=1 1 5 1 4 4 4
split_gain=138.538 46.3888 26.162 16.4881 14.2838 8.67834 4.77371
threshold=0.71559634488607093 0.93378844792794646 inf 0.34556299899882625 -1.0000000180025095e-35 -1.0000000180025095e-35 -0.050807963257317561
decision_type=2 2 8 2 2 2 2
left_child=3 4 -3 6 -2 -5 -1
right_child=1 2 -4 5 -6 -7 -8
leaf_value=-0.00064714279844442632 0.0021462116368691085 0.0028583047102529635 0.01080177095272707 0.00017451084046376687 0.00065874692773279292 -0.00047794627485975072 -0.0011358656204114664
leaf_weight=128157 17816 19990 1093 85977 171861 125120 81995
leaf_count=128157 17816 19990 1093 85977 171861 125120 81995
internal_value=-7.03886e-07 0.00104585 0.00327085 -0.000524332 0.000798499 -0.000212186 -0.000837856
internal_weight=632009 210760 21083 421249 189677 211097 210152
internal_count=632009 210760 21083 421249 189677 211097 210152
is_linear=0
shrinkage=0.05


Tree=38
num_leaves=8
num_cat=0
split_feature=1 6 3 1 5 4 4
split_gain=125.862 43.5868 43.8603 30.7987 12.5764 11.7031 5.86822
threshold=0.82376413855030262 2.0280872683695597 0.47053347046239286 0.45900801186796841 -1.0000000180025095e-35 1.0000000180025095e-35 -0.050807963257317561
decision_type=2 2 2 2 10 2 2
left_child=3 4 -3 6 -2 -5 -1
right_child=1 2 -4 5 -6 -7 -8
leaf_value=-0.00052553122915631478 0.0025656305908391642 0.0075743006549631939 0.0013414709315500116 0.00068839997699310547 0.00093074004630526268 -0.00013358191874584936 -0.00099936404801224715
leaf_weight=165517 13307 5498 5805 57585 101672 174569 108056
leaf_count=165517 13307 5498 5805 57585 101672 174569 108056
internal_value=-6.66365e-07 0.00141135 0.00437409 -0.000353264 0.00112002 7.02884e-05 -0.000712707
internal_weight=632009 126282 11303 505727 114979 232154 273573
internal_count=632009 126282 11303 505727 114979 232154 273573
is_linear=0
shrinkage=0.05


Tree=39
num_leaves=8
num_cat=0
split_feature=0 0 0 8 1 2 10
split_gain=178.279 35.1876 28.1444 19.1663 10.6431 8.79044 7.14845
threshold=0.27074243106389967 0.14918892575742157 0.41636679824227646 -1.0000000180025095e-35 0.34556299899882625 -0.14636677283627716 0.99987980769230789
decision_type=2 2 2 2 2 2 8
left_child=1 4 6 -4 -1 -3 -2
right_child=2 5 3 -5 -6 -7 -8
leaf_value=-0.00075729108175929128 0.0031489909556930394 -0.00067711675625423086 0.0033891894406874856 0.0079168479538679216 -0.00026313026829349602 0.00058750330030651258 0.0014489268468769001
leaf_weight=209803 7474 15609 19038 2667 226788 114610 36020
leaf_count=209803 7474 15609 19038 2667 226788 114610 36020
internal_value=-6.30957e-07 -0.000285454 0.00247537 0.00394609 -0.000500611 0.000435874 0.00174125
internal_weight=632009 566810 65199 21705 436591 130219 43494
internal_count=632009 566810 65199 21705 436591 130219 43494
is_linear=0
shrinkage=0.05


Tree=40
num_leaves=8
num_cat=0
split_feature=0 0 6 2 1 5 2
split_gain=162.302 45.1093 16.7835 28.9662 11.3843 10.4937 8.63774
threshold=0.32368663739134201 0.16091445441614236 2.0280872683695597 -0.089817223957033246 0.34556299899882625 0.14893971100087469 -0.16512205578184938
decision_type=2 2 2 2 2 10 2
left_child=1 4 5 -4 -1 -2 -3
right_child=2 6 3 -5 -6 -7 -8
leaf_value=-0.00071809663961741425 0.0042559985725725315 -0.00089202949058323324 0.0014058701604538655 0.0070037293736392742 -0.00021773175141819848 0.002001095685008281 0.00072091910378328751
leaf_weight=209585 6345 8910 3835 5826 248501 27766 120666
leaf_count=209585 6345 8910 3835 5826 248501 27766 120666
internal_value=5.0902e-06 -0.000213681 0.00294226 0.00478251 -0.000446672 0.00242079 0.000609964
internal_weight=631434 587662 43772 9661 458086 34111 129576
internal_count=631434 587662 43772 9661 458086 34111 129576
is_linear=0
shrinkage=0.05


Tree=41
num_leaves=7
num_cat=0
split_feature=0 0 2 5 3 2
split_gain=146.481 40.711 16.5623 12.9736 8.33418 7.79573
threshold=0.32368663739134201 0.16091445441614236 1.0000000180025095e-35 0.14893971100087469 0.66779894055107103 -0.16512205578184938
decision_type=2 2 2 10 2 2
left_child=1 4 3 -2 -1 -3
right_child=2 5 -4 -5 -6 -7
leaf_value=-0.00021854928645755257 0.0044530428692840024 -0.00084743301674636512 0.017492782323851229 0.0022979535728113319 -0.00064540624697404989 0.00068487344816291532
leaf_weight=237253 8745 8910 190 34837 220833 120666
leaf_count=237253 8745 8910 190 34837 220833 120666
internal_value=4.83716e-06 -0.000202998 0.00279518 0.00273059 -0.000424339 0.000579464
internal_weight=631434 587662 43772 43582 458086 129576
internal_count=631434 587662 43772 43582 458086 129576
is_linear=0
shrinkage=0.05


Tree=42
num_leaves=8
num_cat=0
split_feature=0 0 5 11 9 1 7
split_gain=132.203 36.7416 11.2673 12.9767 11.9338 10.0267 6.977
threshold=0.32368663739134201 0.16091445441614236 0.14893971100087469 0.52765578302783567 0.96627280353765865 0.34556299899882625 -0.16925639013196489
decision_type=2 2 10 2 2 2 10
left_child=1 5 4 -4 -2 -1 -3
right_child=2 6 3 -5 -6 -7 -8
leaf_value=-0.00065784944633117738 0.0048515242810094217 0.00038037036714411355 0.00068615063574673624 0.0028451824778462941 -0.001460136714097976 -0.00018826559779969341 0.0013421824952506
leaf_weight=209585 7954 106664 9597 25396 825 248501 22912
leaf_count=209585 7954 106664 9597 25396 825 248501 22912
internal_value=4.59714e-06 -0.000192848 0.00265546 0.00225324 0.00425772 -0.000403123 0.000550488
internal_weight=631434 587662 43772 34993 8779 458086 129576
internal_count=631434 587662 43772 34993 8779 458086 129576
is_linear=0
shrinkage=0.05


Tree=43
num_leaves=8
num_cat=0
split_feature=0 0 2 0 2 7 4
split_gain=120.533 34.539 18.9759 12.479 7.50982 7.50074 5.47603
threshold=0.20923460153514342 0.41636679824227646 1.0000000180025095e-35 0.11253368666404996 -0.12012839728190058 0.04968001765419839 -0.064563954331249104
decision_type=2 2 2 2 2 8 2
left_child=3 5 -3 6 -5 -2 -1
right_child=1 2 -4 4 -6 -7 -8
leaf_value=-0.00026840279503353201 0.0019257864934254889 0.0031796904087922754 0.021274584844502724 -0.00053389102850984183 0.0002257198891373423 0.00081984989738473888 -0.00066565870625814362
leaf_weight=160999 19912 21629 145 43363 130317 66819 188250
leaf_count=160999 19912 21629 145 43363 130317 66819 188250
internal_value=4.3683e-06 0.00152091 0.00330139 -0.0003103 3.60357e-05 0.00107383 -0.000482545
internal_weight=631434 108505 21774 522929 173680 86731 349249
internal_count=631434 108505 21774 522929 173680 86731 349249
is_linear=0
shrinkage=0.05


Tree=44
num_leaves=8
num_cat=0
split_feature=0 1 0 6 7 7 1
split_gain=109.966 21.5254 18.4826 15.3086 7.02875 6.26131 4.9631
threshold=0.27074243106389967 0.57751724524244286 0.41636679824227646 1.5486575311942963 0.04968001765419839 -0.13991466511512332 0.095529159421862228
decision_type=2 2 2 2 8 10 2
left_child=1 6 4 -4 -2 -3 -1
right_child=2 5 3 -5 -6 -7 -8
leaf_value=-0.00087474270934751732 0.0026597909628421137 3.1073292654674453e-05 0.0015055000130684024 0.0042150625770236358 0.0010427839284048877 0.0007114032987542042 -0.00038245139351404255
leaf_weight=63022 8313 188450 8671 13103 35220 41220 273435
leaf_count=63022 8313 188450 8671 13103 35220 41220 273435
internal_value=4.15234e-06 -0.000219949 0.00194687 0.00313639 0.00135173 0.0001532 -0.00047468
internal_weight=631434 566127 65307 21774 43533 229670 336457
internal_count=631434 566127 65307 21774 43533 229670 336457
is_linear=0
shrinkage=0.05


Tree=45
num_leaves=8
num_cat=0
split_feature=0 0 8 1 4 4 4
split_gain=98.5466 26.6897 13.7755 12.499 7.76553 5.68261 4.37511
threshold=0.20923460153514342 0.41636679824227646 -1.0000000180025095e-35 0.42032868714358967 1.0000000180025095e-35 -1.0000000180025095e-35 -0.050807963257317561
decision_type=2 2 2 2 2 2 2
left_child=3 5 -3 6 -5 -2 -1
right_child=1 2 -4 4 -6 -7 -8
leaf_value=-0.00037013261367036091 0.0020668325011404978 0.0024747296484048643 0.0063351184037162295 0.00042951025085890215 -0.00019729539714180816 0.00083091839060868325 -0.00079732539896827247
leaf_weight=154366 10600 18959 2634 64950 206539 76291 98057
leaf_count=154366 10600 18959 2634 64950 206539 76291 98057
internal_value=1.18464e-06 0.00137283 0.00294614 -0.000282829 -4.73213e-05 0.00098177 -0.000536104
internal_weight=632396 108484 21593 523912 271489 86891 252423
internal_count=632396 108484 21593 523912 271489 86891 252423
is_linear=0
shrinkage=0.05


Tree=46
num_leaves=8
num_cat=0
split_feature=0 0 13 1 4 11 4
split_gain=88.9398 24.0879 13.6539 11.2804 7.00841 5.4237 3.94844
threshold=0.20923460153514342 0.41636679824227646 0.13273830521932975 0.42032868714358967 1.0000000180025095e-35 0.35578305779911529 -0.050807963257317561
decision_type=2 2 2 2 2 2 2
left_child=3 5 -3 6 -5 -2 -1
right_child=1 2 -4 4 -6 -7 -8
leaf_value=-0.00035162610357752184 -0.00089783793785114154 0.0024042011956561526 0.0068115155659634139 0.0004080350681516832 -0.00018743067512851406 0.0010179233996726964 -0.00075745953900763121
leaf_weight=154366 3863 19662 1931 64950 206539 83028 98057
leaf_count=154366 3863 19662 1931 64950 206539 83028 98057
internal_value=1.12665e-06 0.0013042 0.00279886 -0.000268688 -4.49543e-05 0.000932686 -0.0005093
internal_weight=632396 108484 21593 523912 271489 86891 252423
internal_count=632396 108484 21593 523912 271489 86891 252423
is_linear=0
shrinkage=0.05


Tree=47
num_leaves=8
num_cat=0
split_feature=0 1 0 6 4 8 2
split_gain=81.1319 16.8489 12.6055 13.2196 7.76044 6.46739 5.60158
threshold=0.27074243106389967 0.6139955658455486 0.41636679824227646 1.5486575311942963 -1.0000000180025095e-35 1.0000000180025095e-35 -0.16512205578184938
decision_type=2 2 2 2 2 2 2
left_child=1 6 5 -4 -3 -2 -1
right_child=2 4 3 -5 -6 -7 -8
leaf_value=-0.00080017412789008769 0.001023537589215105 0.00097300815329976376 0.0011570867541155023 0.0036788744144548901 5.0541539999352826e-05 0.0035269236141209554 -0.00030173867186655275
leaf_weight=70123 40913 26042 8736 12857 183189 2755 287781
leaf_count=70123 40913 26042 8736 12857 183189 2755 287781
internal_value=1.07059e-06 -0.000191035 0.00167057 0.00265895 0.000165385 0.00118167 -0.000399411
internal_weight=632396 567135 65261 21593 209231 43668 357904
internal_count=632396 567135 65261 21593 209231 43668 357904
is_linear=0
shrinkage=0.05


Tree=48
num_leaves=8
num_cat=0
split_feature=1 1 6 4 2 1 4
split_gain=49.2667 18.492 28.097 10.3928 6.93144 4.6813 4.01598
threshold=0.68319273980737194 0.93378844792794646 2.0280872683695597 1.0000000180025095e-35 -0.14636677283627716 0.27534252033477485 -0.036662340328833025
decision_type=2 2 2 2 2 2 2
left_child=4 3 -3 -2 6 -6 -1
right_child=1 2 -4 -5 5 -7 -8
leaf_value=-0.00046764271264904133 0.0014724032929272215 0.0010250686247299347 0.0054428839443292042 0.00032053163746130383 -0.00046470340306622901 -5.0834373944650162e-05 -0.0011184256421033418
leaf_weight=74884 21846 16398 4612 189228 109835 180871 34722
leaf_count=74884 21846 16398 4612 189228 109835 180871 34722
internal_value=1.01899e-06 0.000580626 0.00199529 0.00043978 -0.000335001 -0.000207221 -0.000673858
internal_weight=632396 232084 21010 211074 400312 290706 109606
internal_count=632396 232084 21010 211074 400312 290706 109606
is_linear=0
shrinkage=0.05


Tree=49
num_leaves=8
num_cat=0
split_feature=0 0 8 5 11 1 9
split_gain=69.5668 20.4483 12.4437 13.6813 6.42488 6.09033 5.72495
threshold=0.32368663739134201 0.1740093073110672 -1.0000000180025095e-35 1.0000000180025095e-35 0.77124419835726443 0.2400622207385503 0.96627280353765865
decision_type=2 2 2 10 2 2 2
left_child=1 5 3 -2 -4 -1 -3
right_child=2 6 4 -5 -6 -7 -8
leaf_value=-0.00054946872662425155 0.0038088339155332891 0.00056536675960945724 0.0051936310376621249 0.0012162615440551902 0.00083271191635027938 -0.00016331262161135802 -0.0010304074515246964
leaf_weight=147313 6037 102642 3969 32479 1077 332936 5943
leaf_count=147313 6037 102642 3969 32479 1077 332936 5943
internal_value=9.68127e-07 -0.000141663 0.00192901 0.00162284 0.00426419 -0.000281775 0.000477973
internal_weight=632396 588834 43562 38516 5046 480249 108585
internal_count=632396 588834 43562 38516 5046 480249 108585
is_linear=0
shrinkage=0.05


Tree=50
num_leaves=8
num_cat=0
split_feature=2 6 12 11 2 13 10
split_gain=23.3726 39.4763 39.1901 16.6011 5.93413 2.89923 1.7516
threshold=-0.10955875221358713 2.0280872683695597 0.98058252427184411 0.40983270229194962 -0.17747321235247251 0.10977055296164055 0.87162162162162182
decision_type=2 2 8 2 2 2 8
left_child=4 3 -3 -2 6 -6 -1
right_child=1 2 -4 -5 5 -7 -8
leaf_value=-0.0005211155334670591 -0.00021049904899176524 0.0023506711359477591 0.012623402358575382 0.00047319577712855404 -0.00028065420512447803 0.00040149670562396843 -0.0010409211769296682
leaf_weight=33577 154946 7131 1067 207921 179241 17052 31441
leaf_count=33577 154946 7131 1067 207921 179241 17052 31441
internal_value=3.68204e-06 0.000258777 0.00368969 0.000181241 -0.000358537 -0.000221368 -0.000772569
internal_weight=632376 371065 8198 362867 261311 196293 65018
internal_count=632376 371065 8198 362867 261311 196293 65018
is_linear=0
shrinkage=0.05


Tree=51
num_leaves=8
num_cat=0
split_feature=0 0 5 7 9 7 3
split_gain=63.3456 17.7815 11.2969 12.8347 12.6563 5.69617 5.44672
threshold=0.32368663739134201 0.1740093073110672 0.14893971100087469 -1.0000000180025095e-35 0.96627280353765865 -0.18044933791390069 0.66779894055107103
decision_type=2 2 10 8 2 10 2
left_child=1 6 4 -4 -2 -3 -1
right_child=2 5 3 -5 -6 -7 -8
leaf_value=-0.00010409360133579364 0.0040513328936460551 0.0002735785108663751 0.0036766550255502707 0.0010239755962809314 -0.0024152929731421618 0.0012096824940062653 -0.00044143809248022931
leaf_weight=253676 8001 88677 5402 29318 834 19904 226564
leaf_count=253676 8001 88677 5402 29318 834 19904 226564
internal_value=3.49863e-06 -0.000132598 0.00184346 0.00143694 0.00344013 0.000445231 -0.000263254
internal_weight=632376 588821 43555 34720 8835 108581 480240
internal_count=632376 588821 43555 34720 8835 108581 480240
is_linear=0
shrinkage=0.05


Tree=52
num_leaves=8
num_cat=0
split_feature=0 0 2 2 0 7 4
split_gain=57.4605 15.7955 15.6259 6.59374 5.65308 5.34446 1.69145
threshold=0.20923460153514342 0.41636679824227646 1.0000000180025095e-35 -0.15504250710789211 0.11253368666404996 0.04968001765419839 -0.050807963257317561
decision_type=2 2 2 2 2 8 2
left_child=3 5 -3 6 -5 -2 -1
right_child=1 2 -4 4 -6 -7 -8
leaf_value=-0.00038867501922560239 0.0014686918001838955 0.0021507293975873633 0.018974985957360097 -0.00026506616059987265 0.0001149240399554745 0.0005350405625041409 -0.00079809218505919901
leaf_weight=55733 19908 21531 138 267866 154210 66782 46208
leaf_count=55733 19908 21531 138 267866 154210 66782 46208
internal_value=3.32467e-06 0.00105144 0.00225898 -0.000213402 -0.000126221 0.000749522 -0.000574311
internal_weight=632376 108359 21669 524017 422076 86690 101941
internal_count=632376 108359 21669 524017 422076 86690 101941
is_linear=0
shrinkage=0.05


Tree=53
num_leaves=7
num_cat=0
split_feature=0 0 2 5 7 1
split_gain=52.4526 14.4108 10.5099 10.5956 5.06994 4.76717
threshold=0.32368663739134201 0.1740093073110672 1.0000000180025095e-35 0.14893971100087469 -0.18044933791390069 0.20567068965586024
decision_type=2 2 2 10 10 2
left_child=1 5 3 -2 -3 -1
right_child=2 4 -4 -5 -6 -7
leaf_value=-0.00050192154997630127 0.0031761387106346885 0.00023755780794008073 0.013638954332424073 0.0012322742779701963 0.0011207077244853546 -0.00014414022434603289
leaf_weight=126380 8800 88677 182 34573 19904 353860
leaf_count=126380 8800 88677 182 34573 19904 353860
internal_value=3.16056e-06 -0.000120682 0.00167747 0.00162685 0.000399503 -0.000238305
internal_weight=632376 588821 43555 43373 108581 480240
internal_count=632376 588821 43555 43373 108581 480240
is_linear=0
shrinkage=0.05


Tree=54
num_leaves=8
num_cat=0
split_feature=0 0 8 3 5 7 1
split_gain=47.3402 13.1559 10.4386 32.2617 10.9114 6.0332 3.76087
threshold=0.32368663739134201 0.14918892575742157 -1.0000000180025095e-35 0.36134606710919426 1.0000000180025095e-35 -0.16925639013196489 0.052633615991565512
decision_type=2 2 2 2 10 10 2
left_child=1 6 4 -4 -2 -3 -1
right_child=2 5 3 -5 -6 -7 -8
leaf_value=-0.00070422873765671836 0.0032461727924228711 0.00013870465635421568 0.0092317151915190937 0.00082435979231557761 0.00094638983302094797 0.00095966620735622819 -0.00020616050756137213
leaf_weight=41935 6138 124557 1744 3302 32371 27286 395043
leaf_count=41935 6138 124557 1744 3302 32371 27286 395043
internal_value=3.0048e-06 -0.000114647 0.00159363 0.00373236 0.00131316 0.000286269 -0.000253971
internal_weight=632376 588821 43555 5046 38509 151843 436978
internal_count=632376 588821 43555 5046 38509 151843 436978
is_linear=0
shrinkage=0.05


Tree=55
num_leaves=8
num_cat=0
split_feature=0 0 2 3 4 4 0
split_gain=40.5654 9.57471 13.3108 5.89613 4.96292 4.04249 3.16647
threshold=0.20923460153514342 0.41636679824227646 1.0000000180025095e-35 0.60610367583597891 -0.020594292143952749 -0.050807963257317561 0.097826507956932776
decision_type=2 2 2 2 2 2 2
left_child=3 4 -3 6 -2 -5 -1
right_child=1 2 -4 5 -6 -7 -8
leaf_value=-0.00020709561186908269 0.0018892946588680765 0.0017168794746642499 0.016668187982589008 -0.0001628320060666269 0.00052905580177982033 -0.00054885414768231949 0.0001494225939698001
leaf_weight=112507 7329 21462 149 143487 79252 128695 139501
leaf_count=112507 7329 21462 149 143487 79252 128695 139501
internal_value=-2.07553e-06 0.000879377 0.00182096 -0.000184017 0.000644277 -0.000345373 -9.72252e-06
internal_weight=632382 108192 21611 524190 86581 272182 252008
internal_count=632382 108192 21611 524190 86581 272182 252008
is_linear=0
shrinkage=0.05


Tree=56
num_leaves=8
num_cat=0
split_feature=1 1 6 4 4 3 1
split_gain=23.8013 9.64879 19.9157 9.48488 4.94601 5.10697 3.93218
threshold=0.64937932232319373 0.93378844792794646 2.0280872683695597 1.0000000180025095e-35 -0.050807963257317561 0.50619948403237902 0.42032868714358967
decision_type=2 2 2 2 2 2 2
left_child=4 3 -3 -2 6 -6 -1
right_child=1 2 -4 -5 5 -7 -8
leaf_value=-0.00019813150344642535 0.0011701320905483589 0.00058001443300913702 0.004298455942394112 0.00016587146257837897 -0.00013938165675769789 -0.00067485560657036103 0.00034025095277263423
leaf_weight=154464 26546 16310 4622 205833 78952 102204 43451
leaf_count=154464 26546 16310 4622 205833 78952 102204 43451
internal_value=-1.96899e-06 0.000373266 0.00140149 0.00028062 -0.00025273 -0.000441513 -7.99066e-05
internal_weight=632382 253311 20932 232379 379071 181156 197915
internal_count=632382 253311 20932 232379 379071 181156 197915
is_linear=0
shrinkage=0.05


Tree=57
num_leaves=8
num_cat=0
split_feature=0 0 2 2 6 1 10
split_gain=34.4763 8.14248 9.09886 5.2687 4.51011 3.58962 1.38478
threshold=0.20923460153514342 0.32368663739134201 1.0000000180025095e-35 -0.17747321235247251 2.0280872683695597 0.34556299899882625 0.9146190533687516
decision_type=2 2 2 2 2 2 10
left_child=3 4 -3 6 -2 -5 -1
right_child=1 2 -4 5 -6 -7 -8
leaf_value=-0.00052418864119712922 0.00056260793649588032 0.0012918963285685776 0.012290137958190547 -0.00029325497976969995 -0.0011643913750373602 -4.7768206504246243e-06 -0.0013132076846438887
leaf_weight=55565 60670 43305 188 171314 4029 291120 6191
leaf_count=55565 60670 43305 188 171314 4029 291120 6191
internal_value=-1.86892e-06 0.000810738 0.00133983 -0.000169601 0.000454969 -0.000111658 -0.000603388
internal_weight=632382 108192 43493 524190 64699 462434 61756
internal_count=632382 108192 43493 524190 64699 462434 61756
is_linear=0
shrinkage=0.05


Tree=58
num_leaves=8
num_cat=0
split_feature=0 0 13 3 7 4 0
split_gain=31.1155 7.5202 12.1082 4.66501 4.57276 3.56298 2.43475
threshold=0.20923460153514342 0.41636679824227646 0.13273830521932975 0.57376086972743112 0.04968001765419839 -0.050807963257317561 0.11253368666404996
decision_type=2 2 2 2 8 2 2
left_child=3 4 -3 6 -2 -5 -1
right_child=1 2 -4 5 -6 -7 -8
leaf_value=-0.00014463991183373342 0.0012268927303942213 0.0012313750952939479 0.005361446385689559 -0.00012874753315194435 0.00036316401264218761 -0.00047995493769578142 0.00017853770790582696
leaf_weight=126126 19909 19660 1951 152343 66672 137385 108336
leaf_count=126126 19909 19660 1951 152343 66672 137385 108336
internal_value=-1.77501e-06 0.00077021 0.00160469 -0.000161122 0.000561845 -0.000295304 4.66701e-06
internal_weight=632382 108192 21611 524190 86581 289728 234462
internal_count=632382 108192 21611 524190 86581 289728 234462
is_linear=0
shrinkage=0.05


Tree=59
num_leaves=8
num_cat=0
split_feature=0 5 2 7 3 0 2
split_gain=28.1169 9.24322 21.808 12.8679 6.65668 4.27765 3.14142
threshold=0.27074243106389967 inf -0.034849067872420543 1.0000000180025095e-35 0.60610367583597891 0.13886773166062402 -0.19454589189188626
decision_type=2 8 2 8 2 2 2
left_child=4 3 -3 -2 5 -1 -6
right_child=1 2 -4 -5 6 -7 -8
leaf_value=-9.3443661734796943e-05 0.0023053366662210396 0.0017871089756024208 0.011783377500137951 0.000344890504082158 -0.00068227238395283181 0.000307632963113654 -0.000215965569980581
leaf_weight=177652 10342 10125 576 43938 42502 106224 241023
leaf_count=177652 10342 10125 576 43938 42502 106224 241023
internal_value=-1.68447e-06 0.00098348 0.00232669 0.000718543 -0.00011452 5.66188e-05 -0.000285887
internal_weight=632382 64981 10701 54280 567401 283876 283525
internal_count=632382 64981 10701 54280 567401 283876 283525
is_linear=0
shrinkage=0.05


Tree=60
num_leaves=8
num_cat=0
split_feature=0 8 2 7 0 9 2
split_gain=30.8114 10.1916 29.2713 10.0453 7.77367 4.48724 3.18913
threshold=0.32368663739134201 -1.0000000180025095e-35 -0.061593061512479272 1.0000000180025095e-35 0.1740093073110672 0.96627280353765865 -0.16512205578184938
decision_type=2 2 2 8 2 2 2
left_child=4 3 -3 -2 6 -6 -1
right_child=1 2 -4 -5 5 -7 -8
leaf_value=-0.00046474897134970126 0.0030060652706371156 0.00057449238490419273 0.0085336590247200878 0.00068640332939276115 0.00037224377391839006 -0.0010374313946992649 -0.00011653750059792733
leaf_weight=78653 5435 3252 1792 33103 102688 5971 401479
leaf_count=78653 5435 3252 1792 33103 102688 5971 401479
internal_value=7.79017e-06 0.0012906 0.0034043 0.00101374 -8.71565e-05 0.000294725 -0.000173591
internal_weight=632373 43582 5044 38538 588791 108659 480132
internal_count=632373 43582 5044 38538 588791 108659 480132
is_linear=0
shrinkage=0.05


Tree=61
num_leaves=8
num_cat=0
split_feature=0 8 2 5 0 6 2
split_gain=27.8087 9.19872 26.4183 10.682 7.03086 3.97905 3.32718
threshold=0.32368663739134201 -1.0000000180025095e-35 -0.061593061512479272 1.0000000180025095e-35 0.18951056484829221 2.0280872683695597 -0.16512205578184938
decision_type=2 2 2 10 2 2 2
left_child=4 3 -3 -2 6 -6 -1
right_child=1 2 -4 -5 5 -7 -8
leaf_value=-0.00044949949256546326 0.0029010651374978295 0.00054577660570142477 0.0081072140565860516 0.00060525794627036653 0.00041480880381255961 -0.0010683005210712271 -9.8412478678060818e-05
leaf_weight=80354 6003 3252 1792 32535 81934 4784 421719
leaf_count=80354 6003 3252 1792 32535 81934 4784 421719
internal_value=7.40197e-06 0.0012261 0.00323422 0.000963068 -8.27992e-05 0.000332921 -0.000154613
internal_weight=632373 43582 5044 38538 588791 86718 502073
internal_count=632373 43582 5044 38538 588791 86718 502073
is_linear=0
shrinkage=0.05


Tree=62
num_leaves=8
num_cat=0
split_feature=0 10 11 9 3 11 4
split_gain=25.0986 8.98688 11.7425 7.76924 6.62742 5.09056 3.06284
threshold=0.32368663739134201 0.99987980769230789 0.52765578302783567 0.11812148294705739 0.57376086972743112 0.35578305779911529 -0.050807963257317561
decision_type=2 8 2 2 2 2 2
left_child=4 3 -3 -2 5 -1 -6
right_child=1 2 -4 -5 6 -7 -8
leaf_value=-0.00020224869340794332 0.0020903340212572196 -0.00063852469159136904 0.0013913187577833473 0.0066752401493039614 -8.0269050058731384e-05 0.00024881017748332662 -0.0003954542434310886
leaf_weight=94187 5226 9595 27637 1124 153497 186187 154920
leaf_count=94187 5226 9595 27637 1124 153497 186187 154920
internal_value=7.03313e-06 0.00116483 0.000868074 0.00290361 -7.86598e-05 9.72664e-05 -0.000238606
internal_weight=632373 43582 37232 6350 588791 280374 308417
internal_count=632373 43582 37232 6350 588791 280374 308417
is_linear=0
shrinkage=0.05


Tree=63
num_leaves=8
num_cat=0
split_feature=1 1 6 7 7 3 8
split_gain=14.2169 7.0805 21.1109 8.81209 2.48369 2.33583 1.49054
threshold=0.64937932232319373 0.93378844792794646 1.5486575311942963 -1.0000000180025095e-35 -0.052416677607517219 0.75529912335787197 -0.052864839080782315
decision_type=2 2 2 8 8 2 2
left_child=4 3 -3 -2 6 -6 -1
right_child=1 2 -4 -5 5 -7 -8
leaf_value=-0.00015068225431697372 0.00071099261523525589 -7.3635886516935784e-05 0.0031817081647459037 2.4971228933180561e-05 -0.00018482027780468186 -0.00058465174733592518 0.00015738675922588897
leaf_weight=175583 65024 12982 8076 167171 92594 60386 50557
leaf_count=175583 65024 12982 8076 167171 92594 60386 50557
internal_value=6.6818e-06 0.000296755 0.00117468 0.000217109 -0.000187075 -0.000342682 -8.17863e-05
internal_weight=632373 253253 21058 232195 379120 152980 226140
internal_count=632373 253253 21058 232195 379120 152980 226140
is_linear=0
shrinkage=0.05


Tree=64
num_leaves=8
num_cat=0
split_feature=0 5 6 11 2 0 2
split_gain=21.3676 8.6345 11.6399 4.12548 3.75594 3.19596 1.53545
threshold=0.23493000417610624 1.3321262609512241 2.0280872683695597 0.60410349843447375 -0.14636677283627716 0.11253368666404996 -0.22149080434894314
decision_type=2 10 2 2 2 2 2
left_child=4 2 -2 -3 6 -6 -1
right_child=1 3 -4 -5 5 -7 -8
leaf_value=-0.00073611774899369205 0.00065386600420297132 -0.0099039086723994273 0.0025723049237456868 -0.00098142310088857542 -0.0001510833065375336 0.00012994758471476564 -0.00027076995284004577
leaf_weight=21434 72610 132 8875 5260 252077 168969 103016
leaf_count=21434 72610 132 8875 5260 252077 168969 103016
internal_value=6.34756e-06 0.000734641 0.000862905 -0.00120257 -0.000109634 -3.82915e-05 -0.000350962
internal_weight=632373 86877 81485 5392 545496 421046 124450
internal_count=632373 86877 81485 5392 545496 421046 124450
is_linear=0
shrinkage=0.05


Tree=65
num_leaves=8
num_cat=0
split_feature=0 7 5 7 3 4 0
split_gain=17.6745 8.99864 12.1309 6.1002 4.0032 2.77404 2.62373
threshold=0.27074243106389967 -1.0000000180025095e-35 -1.0000000180025095e-35 -0.22031573021264025 0.57376086972743112 -0.036662340328833025 0.10487270869072175
decision_type=2 8 10 10 2 2 2
left_child=4 3 -3 -2 6 -6 -1
right_child=1 2 -4 -5 5 -7 -8
leaf_value=-0.00012969231915394288 0.0010266029924601019 0.0020323199254233572 0.00015570631553859146 0.0034633023293511611 -8.0790955305141407e-05 -0.00038593007743817863 0.00018824545927536082
leaf_weight=114256 5697 10702 44110 4690 168722 133426 150154
leaf_count=114256 5697 10702 44110 4690 168722 133426 150154
internal_value=-1.49713e-06 0.000778086 0.000522235 0.00212754 -9.12209e-05 -0.000215555 5.08403e-05
internal_weight=631757 65199 54812 10387 566558 302148 264410
internal_count=631757 65199 54812 10387 566558 302148 264410
is_linear=0
shrinkage=0.05


Tree=66
num_leaves=8
num_cat=0
split_feature=0 5 6 13 1 7 7
split_gain=15.9648 6.79331 7.29032 2.75299 2.74314 3.33288 1.84763
threshold=0.20923460153514342 1.3321262609512241 2.0280872683695597 0.13273830521932975 0.16972967247608459 0.25361356932153395 -0.040692049808429158
decision_type=2 10 2 2 2 8 10
left_child=4 2 -2 -3 6 -6 -1
right_child=1 3 -4 -5 5 -7 -8
leaf_value=-0.00025104898747774809 0.00051446935583431355 -0.0016221119372923599 0.0019741480655171497 0.00083089741035852942 6.0782258228805216e-05 -0.00022528176769967586 -0.00081616410489779041
leaf_weight=87298 92658 4819 9427 1496 243986 174722 17351
leaf_count=87298 92658 4819 9427 1496 243986 174722 17351
internal_value=-1.4206e-06 0.000550851 0.00064933 -0.00104017 -0.00011582 -5.85773e-05 -0.000344801
internal_weight=631757 108400 102085 6315 523357 418708 104649
internal_count=631757 108400 102085 6315 523357 418708 104649
is_linear=0
shrinkage=0.05


Tree=67
num_leaves=8
num_cat=0
split_feature=3 12 2 11 2 4 7
split_gain=9.64772 16.8936 31.2217 8.10657 2.73487 1.92836 1.02825
threshold=0.50619948403237902 0.98058252427184411 -0.034849067872420543 0.46005644173297633 -0.22149080434894314 -0.050807963257317561 -0.02648073289256064
decision_type=2 8 2 2 2 2 10
left_child=1 3 -3 -1 6 -6 -2
right_child=4 2 -4 -5 5 -7 -8
leaf_value=-6.775197839958613e-05 -0.00060821827371133072 0.0018671967912607754 0.015730984862806253 0.00048591627603342439 -1.1456832260021066e-05 -0.00025133107645705855 -0.0018335786886641368
leaf_weight=153045 20043 4020 451 116370 160195 175756 1877
leaf_count=153045 20043 4020 451 116370 160195 175756 1877
internal_value=-1.34913e-06 0.000221992 0.00326999 0.00017138 -0.000172291 -0.000136965 -0.000713452
internal_weight=631757 273886 4471 269415 357871 335951 21920
internal_count=631757 273886 4471 269415 357871 335951 21920
is_linear=0
shrinkage=0.05


Tree=68
num_leaves=8
num_cat=0
split_feature=3 6 12 4 2 3 4
split_gain=8.70738 18.5253 34.6418 3.62 2.52714 1.71329 1.60794
threshold=0.50619948403237902 2.0280872683695597 0.89411764705882391 0.018921026745115647 -0.19454589189188626 0.86859198720097075 -0.10755766955389372
decision_type=2 2 8 2 2 2 2
left_child=1 3 -3 -1 5 -2 -6
right_child=4 2 -4 -5 6 -7 -8
leaf_value=0.00043300128640673624 -0.0014406540706076946 0.0010949498194628949 0.010436099944082754 2.8365732752772379e-05 6.1988358895315908e-05 -0.00041384758624758342 -0.00018680566585834325
leaf_weight=78094 4543 5315 1220 189257 91602 38806 222920
leaf_count=78094 4543 5315 1220 189257 91602 38806 222920
internal_value=-1.28086e-06 0.000210897 0.00284092 0.000146581 -0.000163679 -0.000521604 -0.000114331
internal_weight=631757 273886 6535 267351 357871 43349 314522
internal_count=631757 273886 6535 267351 357871 43349 314522
is_linear=0
shrinkage=0.05


Tree=69
num_leaves=8
num_cat=0
split_feature=0 10 11 10 1 4 4
split_gain=13.4681 8.23015 7.96472 5.23223 3.23601 5.93775 2.10127
threshold=0.27074243106389967 0.99987980769230789 0.49337315124984954 0.61035134614111974 0.42032868714358967 1.0000000180025095e-35 -0.036662340328833025
decision_type=2 8 2 10 2 2 2
left_child=4 3 -3 -2 6 -6 -1
right_child=1 2 -4 -5 5 -7 -8
leaf_value=-0.00011442287565502411 0.0012068105488784167 -0.00080065637810143499 0.00072869777591685306 0.0036237015889056265 0.00043208613858799718 -8.9241889307376622e-05 -0.00042438841482512595
leaf_weight=172334 7111 10536 44276 3276 70393 243700 80131
leaf_count=172334 7111 10536 44276 3276 70393 243700 80131
internal_value=-1.21484e-06 0.000679306 0.000434624 0.00196984 -7.95385e-05 2.75807e-05 -0.000212825
internal_weight=631757 65199 54812 10387 566558 314093 252465
internal_count=631757 65199 54812 10387 566558 314093 252465
is_linear=0
shrinkage=0.05


Tree=70
num_leaves=8
num_cat=0
split_feature=1 4 7 4 3 1 4
split_gain=7.70008 6.46473 6.66377 3.43805 2.44732 2.32172 1.88871
threshold=0.6139955658455486 -0.020594292143952749 -0.14933109619686794 -0.036662340328833025 0.47053347046239286 0.42032868714358967 -0.092568537926219371
decision_type=2 2 10 2 2 2 2
left_child=3 6 -3 5 -5 -1 -2
right_child=1 2 -4 4 -6 -7 -8
leaf_value=-0.00010836371956937676 0.00063637355172214093 -9.9361621541998367e-06 0.00063006616011642704 -0.00010835472991974814 -0.00052267563573971923 0.00031201622551346226 0.0015552324021059034
leaf_weight=172048 14931 198978 51116 62802 82521 40591 8973
leaf_count=172048 14931 198978 51116 62802 82521 40591 8973
internal_value=-3.51566e-06 0.000195964 0.000120854 -0.000156219 -0.000343661 -2.80921e-05 0.000981551
internal_weight=631960 273998 250094 357962 145323 212639 23904
internal_count=631960 273998 250094 357962 145323 212639 23904
is_linear=0
shrinkage=0.05


Tree=71
num_leaves=8
num_cat=0
split_feature=0 7 5 7 1 7 7
split_gain=11.1472 6.91605 9.09597 4.66124 2.23422 4.06793 1.38283
threshold=0.23493000417610624 -1.0000000180025095e-35 inf -0.14933109619686794 0.27534252033477485 -0.11211847224505449 -0.040692049808429158
decision_type=2 8 8 10 2 10 10
left_child=4 3 -3 -2 6 -6 -1
right_child=1 2 -4 -5 5 -7 -8
leaf_value=-0.00018573519557160939 0.00091932956227279211 3.0949519832364232e-05 0.001422827692543573 0.0028361591561787739 -8.9896695250628791e-05 0.00036419542520717751 -0.00062748837650438739
leaf_weight=148399 10611 57035 14781 4532 318102 58368 20132
leaf_count=148399 10611 57035 14781 4532 318102 58368 20132
internal_value=-3.33929e-06 0.000522363 0.000317508 0.00149348 -8.72291e-05 -1.94801e-05 -0.000238538
internal_weight=631960 86959 71816 15143 545001 376470 168531
internal_count=631960 86959 71816 15143 545001 376470 168531
is_linear=0
shrinkage=0.05


Tree=72
num_leaves=8
num_cat=0
split_feature=0 8 2 5 2 4 10
split_gain=10.1042 7.08524 6.59281 6.06328 2.13464 1.6968 1.00655
threshold=0.20923460153514342 -1.0000000180025095e-35 -0.12593970554817277 0.071211350534850074 -0.19454589189188626 -0.036662340328833025 0.9146190533687516
decision_type=2 2 2 10 2 2 10
left_child=4 3 -3 -2 6 -6 -1
right_child=1 2 -4 -5 5 -7 -8
leaf_value=-0.00034825674780962078 0.0011163961776525526 -0.00039263365268841013 0.0019221655723861836 6.7590469733754032e-05 4.552567538348416e-05 -0.00014446202863133557 -0.0011140121337857394
leaf_weight=36621 16913 4027 12974 74448 202878 279229 4870
leaf_count=36621 16913 4027 12974 74448 202878 279229 4870
internal_value=-3.17077e-06 0.000436296 0.00137358 0.000261813 -9.41315e-05 -6.4502e-05 -0.000438282
internal_weight=631960 108362 17001 91361 523598 482107 41491
internal_count=631960 108362 17001 91361 523598 482107 41491
is_linear=0
shrinkage=0.05


Tree=73
num_leaves=8
num_cat=0
split_feature=0 8 2 13 2 0 0
split_gain=9.35507 6.13029 18.8227 7.55216 3.24893 3.38655 1.12575
threshold=0.32368663739134201 -1.0000000180025095e-35 -0.066299153161329019 0.13273830521932975 -0.17747321235247251 0.13886773166062402 0.085172757170291283
decision_type=2 2 2 2 2 2 2
left_child=4 3 -3 -2 6 -6 -1
right_child=1 2 -4 -5 5 -7 -8
leaf_value=-0.00024504131779924985 0.00029283369780631977 -4.4516678056260308e-05 0.0062596737775571553 0.0029808129924553837 -0.00010004457530623354 0.00017401982894236113 -0.0006915353370169719
leaf_weight=43352 35751 3119 1906 2819 359928 164107 20978
leaf_count=43352 35751 3119 1906 2819 359928 164107 20978
internal_value=-3.01174e-06 0.000703702 0.00234646 0.000489494 -5.53854e-05 -1.42088e-05 -0.000390729
internal_weight=631960 43595 5025 38570 588365 524035 64330
internal_count=631960 43595 5025 38570 588365 524035 64330
is_linear=0
shrinkage=0.05


Tree=74
num_leaves=8
num_cat=0
split_feature=0 8 2 11 2 0 3
split_gain=8.44828 5.6358 7.82292 6.97353 2.06366 1.91033 1.5269
threshold=0.23493000417610624 -1.0000000180025095e-35 -0.12593970554817277 0.46005644173297633 -0.14636677283627716 0.13886773166062402 0.75529912335787197
decision_type=2 2 2 2 2 2 2
left_child=4 3 -3 -2 6 -6 -1
right_child=1 2 -4 -5 5 -7 -8
leaf_value=-0.00098331302805970992 -0.00081105651238343461 -0.00073217445126196306 0.002194107572543754 0.00050384010991372924 -8.7753943079026559e-05 0.00015230153845088092 -0.00021257125859986951
leaf_weight=6801 12007 3051 9051 62850 307021 113509 117670
leaf_count=6801 12007 3051 9051 62850 307021 113509 117670
internal_value=-2.86008e-06 0.000454797 0.00145596 0.000292857 -7.58926e-05 -2.29463e-05 -0.000254732
internal_weight=631960 86959 12102 74857 545001 420530 124471
internal_count=631960 86959 12102 74857 545001 420530 124471
is_linear=0
shrinkage=0.05


Tree=75
num_leaves=8
num_cat=0
split_feature=0 11 5 2 2 2 3
split_gain=10.0213 7.35126 13.5504 9.45431 2.89072 2.93261 1.73412
threshold=0.32368663739134201 0.46005644173297633 0.32507227149513956 -0.034849067872420543 -0.14636677283627716 -0.026323200767843887 0.78377574071970502
decision_type=2 2 10 2 2 2 2
left_child=4 2 -2 -3 6 -6 -1
right_child=1 3 -4 -5 5 -7 -8
leaf_value=-0.00082821032565297585 0.0008021124913019837 0.00066791847141712776 -0.0040926552756076909 0.0029104061041173388 3.1124098335403726e-05 -0.00064016606189401103 -0.00020201821398706704
leaf_weight=12219 4202 31943 2129 5513 442721 16889 116844
leaf_count=12219 4202 31943 2129 5513 442721 16889 116844
internal_value=2.01476e-06 0.000731773 -0.000843506 0.000998184 -5.22592e-05 6.4444e-06 -0.000261347
internal_weight=632460 43787 6331 37456 588673 459610 129063
internal_count=632460 43787 6331 37456 588673 459610 129063
is_linear=0
shrinkage=0.05


Tree=76
num_leaves=8
num_cat=0
split_feature=0 11 5 2 2 0 3
split_gain=9.04438 6.63464 12.23 8.53253 2.60892 2.87499 1.56501
threshold=0.32368663739134201 0.46005644173297633 0.32507227149513956 -0.034849067872420543 -0.14636677283627716 0.13886773166062402 0.78377574071970502
decision_type=2 2 10 2 2 2 2
left_child=4 2 -2 -3 6 -6 -1
right_child=1 3 -4 -5 5 -7 -8
leaf_value=-0.00078680320071672751 0.00076201640184348949 0.00063452360850901922 -0.0038881186409500876 0.0027649121229368573 -8.2083615966003836e-05 0.0001834015313417905 -0.00019191738980795937
leaf_weight=12219 4202 31943 2129 5513 306890 152720 116844
leaf_count=12219 4202 31943 2129 5513 306890 152720 116844
internal_value=1.91352e-06 0.000695191 -0.000801317 0.000948286 -4.96468e-05 6.12157e-06 -0.000248282
internal_weight=632460 43787 6331 37456 588673 459610 129063
internal_count=632460 43787 6331 37456 588673 459610 129063
is_linear=0
shrinkage=0.05


Tree=77
num_leaves=8
num_cat=0
split_feature=3 6 13 11 1 6 8
split_gain=5.35236 14.1412 29.6586 4.50007 1.93781 1.81027 1.53379
threshold=0.54061594830464477 2.0280872683695597 0.13273830521932975 0.40983270229194962 0.93378844792794646 2.0280872683695597 0.30531924471713795
decision_type=2 2 2 2 2 2 2
left_child=1 3 -3 -1 6 -6 -2
right_child=4 2 -4 -5 5 -7 -8
leaf_value=-0.00011753637587598963 -0.00014432754433915643 0.0014706324837031025 0.014160708529975544 0.00027986715926291145 -0.00057861529502770646 -0.0032877072774716038 0.0004200129369699452
leaf_weight=128881 321657 6813 493 159230 1985 898 12503
leaf_count=128881 321657 6813 493 159230 1985 898 12503
internal_value=1.81741e-06 0.000157189 0.00232945 0.000102079 -0.000134351 -0.00142503 -0.000123196
internal_weight=632460 295417 7306 288111 337043 2883 334160
internal_count=632460 295417 7306 288111 337043 2883 334160
is_linear=0
shrinkage=0.05


Tree=78
num_leaves=8
num_cat=0
split_feature=0 13 9 6 0 11 4
split_gain=7.6631 10.0297 13.6562 10.5731 3.03519 3.89302 2.23385
threshold=0.41636679824227646 0.13273830521932975 0.67236520182069348 2.0280872683695597 0.18951056484829221 0.33524848460865714 -0.036662340328833025
decision_type=2 2 2 2 2 2 2
left_child=4 2 -2 -3 6 -6 -1
right_child=1 3 -4 -5 5 -7 -8
leaf_value=3.4286920032245494e-05 0.0011008599434476707 6.7441325949527819e-05 -0.0027487881191192685 0.0074537704531103385 -0.0013429217507324167 0.00026662607693912858 -0.00017777927555316815
leaf_weight=224600 17136 845 2660 1139 3895 104539 277646
leaf_count=224600 17136 845 2660 1139 3895 104539 277646
internal_value=1.7271e-06 0.000923294 0.000583215 0.00431202 -3.1134e-05 0.000208752 -8.29353e-05
internal_weight=632460 21780 19796 1984 610680 108434 502246
internal_count=632460 21780 19796 1984 610680 108434 502246
is_linear=0
shrinkage=0.05


Tree=79
num_leaves=8
num_cat=0
split_feature=3 6 13 11 2 8 7
split_gain=4.79047 12.4517 25.2177 3.80018 1.7361 1.3481 0.904392
threshold=0.54061594830464477 2.0280872683695597 0.13273830521932975 0.40983270229194962 -0.22149080434894314 0.30531924471713795 -0.040692049808429158
decision_type=2 2 2 2 2 2 8
left_child=1 3 -3 -1 6 -6 -2
right_child=4 2 -4 -5 5 -7 -8
leaf_value=-0.00010489542238540294 -0.00027898539581117636 0.0013950142974339019 0.013096721094042283 0.00026029681308449565 -0.00011698589422495674 0.00044446226545052925 -0.00092890723484734402
leaf_weight=128881 12533 6813 493 159230 304049 11077 9384
leaf_count=128881 12533 6813 493 159230 304049 11077 9384
internal_value=1.64151e-06 0.000148632 0.002187 9.69178e-05 -0.00012718 -9.72332e-05 -0.000557514
internal_weight=632460 295417 7306 288111 337043 315126 21917
internal_count=632460 295417 7306 288111 337043 315126 21917
is_linear=0
shrinkage=0.05


Tree=80
num_leaves=7
num_cat=0
split_feature=0 2 13 1 4 7
split_gain=7.62182 10.0969 9.53082 2.40534 4.65902 1.13313
threshold=0.41636679824227646 1.0000000180025095e-35 0.13273830521932975 0.27534252033477485 -1.0000000180025095e-35 -0.040692049808429158
decision_type=2 2 2 2 2 10
left_child=3 2 -2 5 -5 -1
right_child=1 -3 -4 4 -6 -7
leaf_value=-0.0001409482816313757 0.00050122942290173399 0.013941127236439324 0.0041429864808462868 0.00028066625043050787 -7.3244073011633379e-05 -0.0005411921440702462
leaf_weight=148748 19669 147 1977 133027 308961 20084
leaf_count=148748 19669 147 1977 133027 308961 20084
internal_value=4.72385e-06 0.000923525 0.00083425 -2.80506e-05 3.32629e-05 -0.000188593
internal_weight=632613 21793 21646 610820 441988 168832
internal_count=632613 21793 21646 610820 441988 168832
is_linear=0
shrinkage=0.05


Tree=81
num_leaves=8
num_cat=0
split_feature=0 12 3 5 1 7 0
split_gain=6.8797 7.00563 17.2102 9.63402 2.26722 6.53114 1.28245
threshold=0.41636679824227646 0.89411764705882391 0.43477210262715921 1.3321262609512241 0.49883028648289135 -0.1304347826086957 0.1206383612626893
decision_type=2 8 2 10 2 10 2
left_child=4 3 -3 -2 6 -6 -1
right_child=1 2 -4 -5 5 -7 -8
leaf_value=-0.00011022817183012617 0.00078672159589142365 0.0065533036783020047 -0.00053547731169034055 -0.0039318965192403467 -3.8902759537818397e-05 0.00055723449838557509 -0.00080506367535252094
leaf_weight=288433 17218 1685 1737 1153 259775 55813 6799
leaf_count=288433 17218 1685 1737 1153 259775 55813 6799
internal_value=4.48909e-06 0.000877414 0.00295449 0.000490102 -2.66486e-05 6.65121e-05 -0.000126249
internal_weight=632613 21793 3422 18371 610820 315588 295232
internal_count=632613 21793 3422 18371 610820 315588 295232
is_linear=0
shrinkage=0.05


end of trees

feature_importances:
pred_sell_reg=193
pred_sell_cls=103
pred_buy_reg=52
current_stage_amp_pct=51
price_vs_dsa_vwap_pct=35
ret_to_last_high_pct=31
pred_buy_cls=26
ret_to_last_low_pct=19
current_pullback_from_stage_extreme_pct=17
beta=15
dsa_pivot_pos_01=9
intraday_range=9
current_stage_ret_pct=6
range_position=5

parameters:
[boosting: gbdt]
[objective: regression]
[metric: l1]
[tree_learner: serial]
[device_type: cpu]
[data_sample_strategy: bagging]
[data: ]
[valid: ]
[num_iterations: 500]
[learning_rate: 0.05]
[num_leaves: 8]
[num_threads: 0]
[seed: 42]
[deterministic: 0]
[force_col_wise: 0]
[force_row_wise: 0]
[histogram_pool_size: -1]
[max_depth: 3]
[min_data_in_leaf: 100]
[min_sum_hessian_in_leaf: 0.001]
[bagging_fraction: 0.8]
[pos_bagging_fraction: 1]
[neg_bagging_fraction: 1]
[bagging_freq: 5]
[bagging_seed: 400]
[bagging_by_query: 0]
[feature_fraction: 0.8]
[feature_fraction_bynode: 1]
[feature_fraction_seed: 30056]
[extra_trees: 0]
[extra_seed: 12879]
[early_stopping_round: 0]
[early_stopping_min_delta: 0]
[first_metric_only: 0]
[max_delta_step: 0]
[lambda_l1: 0.1]
[lambda_l2: 1]
[linear_lambda: 0]
[min_gain_to_split: 0]
[drop_rate: 0.1]
[max_drop: 50]
[skip_drop: 0.5]
[xgboost_dart_mode: 0]
[uniform_drop: 0]
[drop_seed: 17869]
[top_rate: 0.2]
[other_rate: 0.1]
[min_data_per_group: 100]
[max_cat_threshold: 32]
[cat_l2: 10]
[cat_smooth: 10]
[max_cat_to_onehot: 4]
[top_k: 20]
[monotone_constraints: ]
[monotone_constraints_method: basic]
[monotone_penalty: 0]
[feature_contri: ]
[forcedsplits_filename: ]
[refit_decay_rate: 0.9]
[cegb_tradeoff: 1]
[cegb_penalty_split: 0]
[cegb_penalty_feature_lazy: ]
[cegb_penalty_feature_coupled: ]
[path_smooth: 0]
[interaction_constraints: ]
[verbosity: -1]
[saved_feature_importance_type: 0]
[use_quantized_grad: 0]
[num_grad_quant_bins: 4]
[quant_train_renew_leaf: 0]
[stochastic_rounding: 1]
[linear_tree: 0]
[max_bin: 31]
[max_bin_by_feature: ]
[min_data_in_bin: 3]
[bin_construct_sample_cnt: 200000]
[data_random_seed: 175]
[is_enable_sparse: 1]
[enable_bundle: 1]
[use_missing: 1]
[zero_as_missing: 0]
[feature_pre_filter: 1]
[pre_partition: 0]
[two_round: 0]
[header: 0]
[label_column: ]
[weight_column: ]
[group_column: ]
[ignore_column: ]
[categorical_feature: ]
[forcedbins_filename: ]
[precise_float_parser: 0]
[parser_config_file: ]
[objective_seed: 16083]
[num_class: 1]
[is_unbalance: 0]
[scale_pos_weight: 1]
[sigmoid: 1]
[boost_from_average: 1]
[reg_sqrt: 0]
[alpha: 0.9]
[fair_c: 1]
[poisson_max_delta_step: 0.7]
[tweedie_variance_power: 1.5]
[lambdarank_truncation_level: 30]
[lambdarank_norm: 1]
[label_gain: ]
[lambdarank_position_bias_regularization: 0]
[eval_at: ]
[multi_error_top_k: 1]
[auc_mu_weights: ]
[num_machines: 1]
[local_listen_port: 12400]
[time_out: 120]
[machine_list_filename: ]
[machines: ]
[gpu_platform_id: -1]
[gpu_device_id: -1]
[gpu_use_dp: 0]
[num_gpu: 1]

end of parameters

pandas_categorical:[]
